digraph Tree {
node [shape=box] ;
0 [label="Sex <= 0.5\ngini = 0.473\nsamples = 891\nvalue = [549, 342]"] ;
1 [label="Pclass <= 1.5\ngini = 0.3828\nsamples = 314\nvalue = [81, 233]"] ;
0 -> 1 [labeldistance=2.5, labelangle=45, headlabel="True"] ;
2 [label="Pclass <= 0.5\ngini = 0.1003\nsamples = 170\nvalue = [9, 161]"] ;
1 -> 2 ;
3 [label="gini = 0.0618\nsamples = 94\nvalue = [3, 91]"] ;
2 -> 3 ;
4 [label="gini = 0.1454\nsamples = 76\nvalue = [6, 70]"] ;
2 -> 4 ;
5 [label="gini = 0.5\nsamples = 144\nvalue = [72, 72]"] ;
1 -> 5 ;
6 [label="Pclass <= 0.5\ngini = 0.3064\nsamples = 577\nvalue = [468, 109]"] ;
0 -> 6 [labeldistance=2.5, labelangle=-45, headlabel="False"] ;
7 [label="gini = 0.4656\nsamples = 122\nvalue = [77, 45]"] ;
6 -> 7 ;
8 [label="Pclass <= 1.5\ngini = 0.2417\nsamples = 455\nvalue = [391, 64]"] ;
6 -> 8 ;
9 [label="gini = 0.2653\nsamples = 108\nvalue = [91, 17]"] ;
8 -> 9 ;
10 [label="gini = 0.2342\nsamples = 347\nvalue = [300, 47]"] ;
8 -> 10 ;
}